digraph Tree {
node [shape=box, style="filled, rounded", color="black", fontname="helvetica"] ;
edge [fontname="helvetica"] ;
0 [label="assignmentsQty <= 39.0\nentropy = 1.0\nsamples = 98\nvalue = [49, 49]\nclass = Default", fillcolor="#ffffff"] ;
1 [label="fanin <= 3.5\nentropy = 0.83\nsamples = 46\nvalue = [34, 12]\nclass = Default", fillcolor="#eead7f"] ;
0 -> 1 [labeldistance=2.5, labelangle=45, headlabel="True"] ;
2 [label="lcom <= 43.0\nentropy = 0.98\nsamples = 12\nvalue = [5, 7]\nclass = Branch + Output Diversity", fillcolor="#c6e3f8"] ;
1 -> 2 ;
3 [label="entropy = 0.0\nsamples = 5\nvalue = [0, 5]\nclass = Branch + Output Diversity", fillcolor="#399de5"] ;
2 -> 3 ;
4 [label="entropy = 0.86\nsamples = 7\nvalue = [5, 2]\nclass = Default", fillcolor="#efb388"] ;
2 -> 4 ;
5 [label="numbersQty <= 1.5\nentropy = 0.6\nsamples = 34\nvalue = [29, 5]\nclass = Default", fillcolor="#e9975b"] ;
1 -> 5 ;
6 [label="entropy = 0.0\nsamples = 16\nvalue = [16, 0]\nclass = Default", fillcolor="#e58139"] ;
5 -> 6 ;
7 [label="comparisonsQty <= 23.5\nentropy = 0.85\nsamples = 18\nvalue = [13, 5]\nclass = Default", fillcolor="#efb185"] ;
5 -> 7 ;
8 [label="modifiers <= 9.0\nentropy = 1.0\nsamples = 8\nvalue = [4, 4]\nclass = Default", fillcolor="#ffffff"] ;
7 -> 8 ;
9 [label="entropy = 0.0\nsamples = 4\nvalue = [0, 4]\nclass = Branch + Output Diversity", fillcolor="#399de5"] ;
8 -> 9 ;
10 [label="entropy = 0.0\nsamples = 4\nvalue = [4, 0]\nclass = Default", fillcolor="#e58139"] ;
8 -> 10 ;
11 [label="entropy = 0.47\nsamples = 10\nvalue = [9, 1]\nclass = Default", fillcolor="#e88f4f"] ;
7 -> 11 ;
12 [label="stringLiteralsQty <= 2.5\nentropy = 0.87\nsamples = 52\nvalue = [15, 37]\nclass = Branch + Output Diversity", fillcolor="#89c5f0"] ;
0 -> 12 [labeldistance=2.5, labelangle=-45, headlabel="False"] ;
13 [label="numbersQty <= 1572.0\nentropy = 0.89\nsamples = 13\nvalue = [9, 4]\nclass = Default", fillcolor="#f1b991"] ;
12 -> 13 ;
14 [label="entropy = 0.99\nsamples = 9\nvalue = [5, 4]\nclass = Default", fillcolor="#fae6d7"] ;
13 -> 14 ;
15 [label="entropy = 0.0\nsamples = 4\nvalue = [4, 0]\nclass = Default", fillcolor="#e58139"] ;
13 -> 15 ;
16 [label="nosi <= 22.0\nentropy = 0.62\nsamples = 39\nvalue = [6, 33]\nclass = Branch + Output Diversity", fillcolor="#5dafea"] ;
12 -> 16 ;
17 [label="entropy = 0.0\nsamples = 18\nvalue = [0, 18]\nclass = Branch + Output Diversity", fillcolor="#399de5"] ;
16 -> 17 ;
18 [label="modifiers <= 521.0\nentropy = 0.86\nsamples = 21\nvalue = [6, 15]\nclass = Branch + Output Diversity", fillcolor="#88c4ef"] ;
16 -> 18 ;
19 [label="returnQty <= 18.5\nentropy = 0.67\nsamples = 17\nvalue = [3, 14]\nclass = Branch + Output Diversity", fillcolor="#63b2eb"] ;
18 -> 19 ;
20 [label="entropy = 0.81\nsamples = 4\nvalue = [3, 1]\nclass = Default", fillcolor="#eeab7b"] ;
19 -> 20 ;
21 [label="entropy = 0.0\nsamples = 13\nvalue = [0, 13]\nclass = Branch + Output Diversity", fillcolor="#399de5"] ;
19 -> 21 ;
22 [label="entropy = 0.81\nsamples = 4\nvalue = [3, 1]\nclass = Default", fillcolor="#eeab7b"] ;
18 -> 22 ;
}