digraph Tree {
node [shape=box, style="filled, rounded", color="black", fontname="helvetica"] ;
edge [fontname="helvetica"] ;
0 [label="fanout <= 7.5\ngini = 0.5\nsamples = 16\nvalue = [8, 8]\nclass = Branch", fillcolor="#ffffff"] ;
1 [label="gini = 0.0\nsamples = 4\nvalue = [4, 0]\nclass = Branch", fillcolor="#e58139"] ;
0 -> 1 [labeldistance=2.5, labelangle=45, headlabel="True"] ;
2 [label="stringLiteralsQty <= 12.5\ngini = 0.44\nsamples = 12\nvalue = [4, 8]\nclass = Branch + Output Diversity", fillcolor="#9ccef2"] ;
0 -> 2 [labeldistance=2.5, labelangle=-45, headlabel="False"] ;
3 [label="gini = 0.0\nsamples = 8\nvalue = [0, 8]\nclass = Branch + Output Diversity", fillcolor="#399de5"] ;
2 -> 3 ;
4 [label="gini = 0.0\nsamples = 4\nvalue = [4, 0]\nclass = Branch", fillcolor="#e58139"] ;
2 -> 4 ;
}