digraph Tree {
node [shape=box, style="filled, rounded", color="black", fontname="helvetica"] ;
edge [fontname="helvetica"] ;
0 [label="comparisonsQty <= 14.5\nfriedman_mse = 0.02\nsamples = 124\nvalue = -0.0", fillcolor="#eb9c64"] ;
1 [label="dit <= 1.5\nfriedman_mse = 0.0\nsamples = 48\nvalue = -0.05", fillcolor="#eb9f68"] ;
0 -> 1 [labeldistance=2.5, labelangle=45, headlabel="True"] ;
7 [label="loc <= 125.0\nfriedman_mse = 0.0\nsamples = 27\nvalue = -0.06", fillcolor="#eb9f68"] ;
1 -> 7 ;
9 [label="friedman_mse = 0.0\nsamples = 17\nvalue = -1.05", fillcolor="#f6d2b8"] ;
7 -> 9 ;
10 [label="friedman_mse = 0.0\nsamples = 10\nvalue = -1.07", fillcolor="#f6d3ba"] ;
7 -> 10 ;
8 [label="returnQty <= 12.5\nfriedman_mse = 0.0\nsamples = 21\nvalue = -0.04", fillcolor="#eb9f67"] ;
1 -> 8 ;
11 [label="friedman_mse = 0.0\nsamples = 13\nvalue = -1.05", fillcolor="#f6d2b8"] ;
8 -> 11 ;
12 [label="friedman_mse = 0.0\nsamples = 8\nvalue = -1.04", fillcolor="#f6d1b7"] ;
8 -> 12 ;
2 [label="returnQty <= 2.5\nfriedman_mse = 0.03\nsamples = 76\nvalue = 0.03", fillcolor="#ea9b62"] ;
0 -> 2 [labeldistance=2.5, labelangle=-45, headlabel="False"] ;
3 [label="friedman_mse = 0.0\nsamples = 1\nvalue = -1.94", fillcolor="#ffffff"] ;
2 -> 3 ;
4 [label="privateFieldsQty <= 5.5\nfriedman_mse = 0.03\nsamples = 75\nvalue = 0.04", fillcolor="#ea9a61"] ;
2 -> 4 ;
5 [label="friedman_mse = 0.03\nsamples = 69\nvalue = 0.54", fillcolor="#e58139"] ;
4 -> 5 ;
6 [label="friedman_mse = 0.0\nsamples = 6\nvalue = -1.2", fillcolor="#f7d9c4"] ;
4 -> 6 ;
}