digraph Tree {
node [shape=box, style="filled, rounded", color="black", fontname="helvetica"] ;
edge [fontname="helvetica"] ;
0 [label="comparisonsQty <= 34.5\nfriedman_mse = 0.0\nsamples = 124\nvalue = -0.0", fillcolor="#f2bf9a"] ;
1 [label="comparisonsQty <= 23.5\nfriedman_mse = 0.0\nsamples = 122\nvalue = 0.0", fillcolor="#f2bf9a"] ;
0 -> 1 [labeldistance=2.5, labelangle=45, headlabel="True"] ;
3 [label="returnQty <= 34.43\nfriedman_mse = 0.0\nsamples = 94\nvalue = -0.0", fillcolor="#f2bf9a"] ;
1 -> 3 ;
5 [label="friedman_mse = 0.0\nsamples = 86\nvalue = -0.03", fillcolor="#f2c09d"] ;
3 -> 5 ;
6 [label="friedman_mse = 0.0\nsamples = 8\nvalue = -0.67", fillcolor="#fae8da"] ;
3 -> 6 ;
4 [label="dit <= 1.5\nfriedman_mse = 0.0\nsamples = 28\nvalue = 0.01", fillcolor="#f2be99"] ;
1 -> 4 ;
7 [label="friedman_mse = 0.0\nsamples = 27\nvalue = 1.01", fillcolor="#e58139"] ;
4 -> 7 ;
8 [label="friedman_mse = -0.0\nsamples = 1\nvalue = -1.04", fillcolor="#fffefd"] ;
4 -> 8 ;
2 [label="friedman_mse = 0.0\nsamples = 2\nvalue = -1.06", fillcolor="#ffffff"] ;
0 -> 2 [labeldistance=2.5, labelangle=-45, headlabel="False"] ;
}