digraph Tree {
node [shape=box, style="filled, rounded", color="black", fontname="helvetica"] ;
edge [fontname="helvetica"] ;
0 [label="assignmentsQty <= 124.0\nfriedman_mse = 0.03\nsamples = 124\nvalue = -0.0", fillcolor="#eda978"] ;
1 [label="returnQty <= 34.43\nfriedman_mse = 0.03\nsamples = 105\nvalue = -0.02", fillcolor="#edaa79"] ;
0 -> 1 [labeldistance=2.5, labelangle=45, headlabel="True"] ;
3 [label="loc <= 316.31\nfriedman_mse = 0.02\nsamples = 98\nvalue = -0.01", fillcolor="#edaa79"] ;
1 -> 3 ;
5 [label="friedman_mse = 0.02\nsamples = 94\nvalue = 0.08", fillcolor="#eda674"] ;
3 -> 5 ;
6 [label="friedman_mse = 0.08\nsamples = 4\nvalue = -2.42", fillcolor="#ffffff"] ;
3 -> 6 ;
4 [label="friedman_mse = 0.07\nsamples = 7\nvalue = -1.4", fillcolor="#f8dbc6"] ;
1 -> 4 ;
2 [label="loc <= 244.42\nfriedman_mse = 0.0\nsamples = 19\nvalue = 0.1", fillcolor="#eda673"] ;
0 -> 2 [labeldistance=2.5, labelangle=-45, headlabel="False"] ;
7 [label="friedman_mse = 0.0\nsamples = 1\nvalue = -1.12", fillcolor="#f6d1b7"] ;
2 -> 7 ;
8 [label="privateFieldsQty <= 3.83\nfriedman_mse = 0.0\nsamples = 18\nvalue = 0.11", fillcolor="#eda572"] ;
2 -> 8 ;
9 [label="friedman_mse = -0.0\nsamples = 17\nvalue = 1.14", fillcolor="#e58139"] ;
8 -> 9 ;
10 [label="friedman_mse = -0.0\nsamples = 1\nvalue = -1.09", fillcolor="#f5d0b5"] ;
8 -> 10 ;
}