digraph Tree {
node [shape=box, style="filled, rounded", color="black", fontname="helvetica"] ;
edge [fontname="helvetica"] ;
0 [label="loc <= 567.5\nfriedman_mse = 0.0\nsamples = 124\nvalue = -0.0", fillcolor="#edaa79"] ;
1 [label="privateFieldsQty <= 5.5\nfriedman_mse = 0.0\nsamples = 119\nvalue = 0.0", fillcolor="#edaa79"] ;
0 -> 1 [labeldistance=2.5, labelangle=45, headlabel="True"] ;
3 [label="privateFieldsQty <= 1.5\nfriedman_mse = 0.0\nsamples = 108\nvalue = 0.01", fillcolor="#eda978"] ;
1 -> 3 ;
5 [label="friedman_mse = 0.01\nsamples = 35\nvalue = -0.5", fillcolor="#f6d1b7"] ;
3 -> 5 ;
6 [label="friedman_mse = 0.0\nsamples = 73\nvalue = 0.52", fillcolor="#e58139"] ;
3 -> 6 ;
4 [label="loc <= 154.5\nfriedman_mse = 0.0\nsamples = 11\nvalue = -0.04", fillcolor="#eead7e"] ;
1 -> 4 ;
7 [label="friedman_mse = 0.0\nsamples = 5\nvalue = -1.01", fillcolor="#fef8f5"] ;
4 -> 7 ;
8 [label="friedman_mse = 0.0\nsamples = 6\nvalue = -1.09", fillcolor="#ffffff"] ;
4 -> 8 ;
2 [label="friedman_mse = 0.03\nsamples = 5\nvalue = -0.92", fillcolor="#fcf1ea"] ;
0 -> 2 [labeldistance=2.5, labelangle=-45, headlabel="False"] ;
}