digraph Tree {
node [shape=box, style="filled, rounded", color="black", fontname="helvetica"] ;
edge [fontname="helvetica"] ;
0 [label="returnQty <= 0.5\nfriedman_mse = 0.0\nsamples = 124\nvalue = -0.0", fillcolor="#eda674"] ;
1 [label="friedman_mse = 0.0\nsamples = 3\nvalue = -1.05", fillcolor="#fefaf6"] ;
0 -> 1 [labeldistance=2.5, labelangle=45, headlabel="True"] ;
2 [label="loc <= 307.81\nfriedman_mse = 0.0\nsamples = 121\nvalue = 0.0", fillcolor="#eda674"] ;
0 -> 2 [labeldistance=2.5, labelangle=-45, headlabel="False"] ;
3 [label="comparisonsQty <= 14.5\nfriedman_mse = 0.0\nsamples = 98\nvalue = 0.0", fillcolor="#eda674"] ;
2 -> 3 ;
7 [label="friedman_mse = 0.0\nsamples = 44\nvalue = -1.01", fillcolor="#fdf6f1"] ;
3 -> 7 ;
8 [label="friedman_mse = 0.0\nsamples = 54\nvalue = 0.47", fillcolor="#e58139"] ;
3 -> 8 ;
4 [label="returnQty <= 12.0\nfriedman_mse = 0.0\nsamples = 23\nvalue = -0.01", fillcolor="#eda775"] ;
2 -> 4 ;
5 [label="friedman_mse = 0.0\nsamples = 1\nvalue = -1.12", fillcolor="#ffffff"] ;
4 -> 5 ;
6 [label="friedman_mse = 0.0\nsamples = 22\nvalue = -0.1", fillcolor="#eeae80"] ;
4 -> 6 ;
}