digraph Tree {
node [shape=box, style="filled, rounded", color="black", fontname="helvetica"] ;
edge [fontname="helvetica"] ;
0 [label="privateFieldsQty <= 7.5\nfriedman_mse = 0.0\nsamples = 124\nvalue = -0.0", fillcolor="#eb9d64"] ;
1 [label="returnQty <= 12.01\nfriedman_mse = 0.0\nsamples = 120\nvalue = 0.0", fillcolor="#eb9d64"] ;
0 -> 1 [labeldistance=2.5, labelangle=45, headlabel="True"] ;
3 [label="loc <= 323.0\nfriedman_mse = 0.0\nsamples = 49\nvalue = -0.01", fillcolor="#eb9d66"] ;
1 -> 3 ;
5 [label="friedman_mse = 0.0\nsamples = 48\nvalue = -0.2", fillcolor="#eda977"] ;
3 -> 5 ;
6 [label="friedman_mse = 0.0\nsamples = 1\nvalue = -1.65", fillcolor="#ffffff"] ;
3 -> 6 ;
4 [label="loc <= 567.5\nfriedman_mse = 0.0\nsamples = 71\nvalue = 0.01", fillcolor="#eb9c63"] ;
1 -> 4 ;
7 [label="friedman_mse = 0.0\nsamples = 66\nvalue = 0.46", fillcolor="#e58139"] ;
4 -> 7 ;
8 [label="friedman_mse = 0.02\nsamples = 5\nvalue = -0.7", fillcolor="#f3c7a6"] ;
4 -> 8 ;
2 [label="friedman_mse = 0.0\nsamples = 4\nvalue = -1.08", fillcolor="#f8ddc9"] ;
0 -> 2 [labeldistance=2.5, labelangle=-45, headlabel="False"] ;
}