digraph Tree {
node [shape=box, style="filled, rounded", color="black", fontname="helvetica"] ;
edge [fontname="helvetica"] ;
0 [label="returnQty <= 0.5\nfriedman_mse = 0.0\nsamples = 124\nvalue = -0.0", fillcolor="#eb9f68"] ;
1 [label="friedman_mse = 0.0\nsamples = 3\nvalue = -1.06", fillcolor="#ffffff"] ;
0 -> 1 [labeldistance=2.5, labelangle=45, headlabel="True"] ;
2 [label="dit <= 1.5\nfriedman_mse = 0.0\nsamples = 121\nvalue = 0.0", fillcolor="#eb9f68"] ;
0 -> 2 [labeldistance=2.5, labelangle=-45, headlabel="False"] ;
3 [label="comparisonsQty <= 14.5\nfriedman_mse = 0.0\nsamples = 96\nvalue = 0.0", fillcolor="#eb9f68"] ;
2 -> 3 ;
5 [label="friedman_mse = 0.0\nsamples = 26\nvalue = -1.01", fillcolor="#fefaf7"] ;
3 -> 5 ;
6 [label="friedman_mse = 0.0\nsamples = 70\nvalue = 0.33", fillcolor="#e58139"] ;
3 -> 6 ;
4 [label="assignmentsQty <= 32.5\nfriedman_mse = 0.0\nsamples = 25\nvalue = -0.01", fillcolor="#eba069"] ;
2 -> 4 ;
7 [label="friedman_mse = 0.0\nsamples = 18\nvalue = -1.0", fillcolor="#fef9f6"] ;
4 -> 7 ;
8 [label="friedman_mse = 0.0\nsamples = 7\nvalue = -1.04", fillcolor="#fffdfc"] ;
4 -> 8 ;
}