digraph Tree {
node [shape=box, style="filled, rounded", color="black", fontname="helvetica"] ;
edge [fontname="helvetica"] ;
0 [label="returnQty <= 0.5\nfriedman_mse = 0.0\nsamples = 124\nvalue = -0.0", fillcolor="#eb9f68"] ;
1 [label="friedman_mse = 0.0\nsamples = 3\nvalue = -1.11", fillcolor="#ffffff"] ;
0 -> 1 [labeldistance=2.5, labelangle=45, headlabel="True"] ;
2 [label="privateFieldsQty <= 5.5\nfriedman_mse = 0.0\nsamples = 121\nvalue = 0.0", fillcolor="#eb9f68"] ;
0 -> 2 [labeldistance=2.5, labelangle=-45, headlabel="False"] ;
3 [label="assignmentsQty <= 86.55\nfriedman_mse = 0.0\nsamples = 108\nvalue = 0.0", fillcolor="#eb9f68"] ;
2 -> 3 ;
5 [label="friedman_mse = 0.0\nsamples = 87\nvalue = 0.35", fillcolor="#e58139"] ;
3 -> 5 ;
6 [label="friedman_mse = 0.0\nsamples = 21\nvalue = -0.3", fillcolor="#f0b991"] ;
3 -> 6 ;
4 [label="assignmentsQty <= 40.5\nfriedman_mse = 0.0\nsamples = 13\nvalue = -0.02", fillcolor="#eba06a"] ;
2 -> 4 ;
7 [label="friedman_mse = 0.0\nsamples = 7\nvalue = -1.02", fillcolor="#fef8f4"] ;
4 -> 7 ;
8 [label="friedman_mse = 0.0\nsamples = 6\nvalue = -1.05", fillcolor="#fefaf7"] ;
4 -> 8 ;
}