digraph Tree {
node [shape=box, style="filled, rounded", color="black", fontname="helvetica"] ;
edge [fontname="helvetica"] ;
0 [label="assignmentsQty <= 124.0\nfriedman_mse = 0.0\nsamples = 124\nvalue = -0.0", fillcolor="#f0b890"] ;
1 [label="assignmentsQty <= 86.55\nfriedman_mse = 0.0\nsamples = 105\nvalue = -0.0", fillcolor="#f0b990"] ;
0 -> 1 [labeldistance=2.5, labelangle=45, headlabel="True"] ;
3 [label="privateFieldsQty <= 1.5\nfriedman_mse = 0.0\nsamples = 101\nvalue = 0.0", fillcolor="#f0b890"] ;
1 -> 3 ;
5 [label="friedman_mse = 0.0\nsamples = 18\nvalue = -1.09", fillcolor="#fcf3ec"] ;
3 -> 5 ;
6 [label="friedman_mse = 0.0\nsamples = 83\nvalue = 0.33", fillcolor="#eda774"] ;
3 -> 6 ;
4 [label="friedman_mse = 0.01\nsamples = 4\nvalue = -1.32", fillcolor="#ffffff"] ;
1 -> 4 ;
2 [label="assignmentsQty <= 149.93\nfriedman_mse = 0.0\nsamples = 19\nvalue = 0.02", fillcolor="#f0b78e"] ;
0 -> 2 [labeldistance=2.5, labelangle=-45, headlabel="False"] ;
7 [label="comparisonsQty <= 22.68\nfriedman_mse = 0.0\nsamples = 10\nvalue = 0.01", fillcolor="#f0b88f"] ;
2 -> 7 ;
9 [label="friedman_mse = 0.0\nsamples = 2\nvalue = -1.01", fillcolor="#fceee5"] ;
7 -> 9 ;
10 [label="friedman_mse = 0.0\nsamples = 8\nvalue = 1.02", fillcolor="#e5823a"] ;
7 -> 10 ;
8 [label="friedman_mse = 0.0\nsamples = 9\nvalue = 1.03", fillcolor="#e58139"] ;
2 -> 8 ;
}