digraph Tree {
node [shape=box, style="filled, rounded", color="black", fontname="helvetica"] ;
edge [fontname="helvetica"] ;
0 [label="loc <= 567.5\nfriedman_mse = 0.01\nsamples = 124\nvalue = -0.0", fillcolor="#f0b88f"] ;
1 [label="returnQty <= 12.01\nfriedman_mse = 0.01\nsamples = 119\nvalue = 0.0", fillcolor="#f0b88f"] ;
0 -> 1 [labeldistance=2.5, labelangle=45, headlabel="True"] ;
3 [label="comparisonsQty <= 18.4\nfriedman_mse = 0.01\nsamples = 49\nvalue = -0.02", fillcolor="#f1b991"] ;
1 -> 3 ;
5 [label="friedman_mse = 0.01\nsamples = 35\nvalue = -1.37", fillcolor="#ffffff"] ;
3 -> 5 ;
6 [label="friedman_mse = 0.0\nsamples = 14\nvalue = 1.06", fillcolor="#e58139"] ;
3 -> 6 ;
4 [label="dit <= 1.5\nfriedman_mse = 0.0\nsamples = 70\nvalue = 0.02", fillcolor="#f0b78e"] ;
1 -> 4 ;
7 [label="friedman_mse = 0.0\nsamples = 58\nvalue = 0.61", fillcolor="#ea985e"] ;
4 -> 7 ;
8 [label="friedman_mse = 0.0\nsamples = 12\nvalue = -1.13", fillcolor="#fcf3eb"] ;
4 -> 8 ;
2 [label="friedman_mse = 0.05\nsamples = 5\nvalue = -1.0", fillcolor="#fbece1"] ;
0 -> 2 [labeldistance=2.5, labelangle=-45, headlabel="False"] ;
}