digraph Tree {
node [shape=box, style="filled, rounded", color="black", fontname="helvetica"] ;
edge [fontname="helvetica"] ;
0 [label="loc <= 567.5\nfriedman_mse = 0.0\nsamples = 124\nvalue = -0.0", fillcolor="#ea995f"] ;
1 [label="comparisonsQty <= 34.5\nfriedman_mse = 0.0\nsamples = 119\nvalue = 0.0", fillcolor="#ea995e"] ;
0 -> 1 [labeldistance=2.5, labelangle=45, headlabel="True"] ;
3 [label="dit <= 1.5\nfriedman_mse = 0.0\nsamples = 118\nvalue = 0.0", fillcolor="#ea995e"] ;
1 -> 3 ;
5 [label="friedman_mse = 0.0\nsamples = 93\nvalue = 0.28", fillcolor="#e58139"] ;
3 -> 5 ;
6 [label="friedman_mse = 0.0\nsamples = 25\nvalue = -1.06", fillcolor="#fdf4ee"] ;
3 -> 6 ;
4 [label="friedman_mse = 0.0\nsamples = 1\nvalue = -1.19", fillcolor="#ffffff"] ;
1 -> 4 ;
2 [label="friedman_mse = 0.02\nsamples = 5\nvalue = -0.78", fillcolor="#f8dcc8"] ;
0 -> 2 [labeldistance=2.5, labelangle=-45, headlabel="False"] ;
}