digraph Tree {
node [shape=box, style="filled, rounded", color="black", fontname="helvetica"] ;
edge [fontname="helvetica"] ;
0 [label="assignmentsQty <= 124.0\nfriedman_mse = 0.0\nsamples = 124\nvalue = -0.0", fillcolor="#f1bd97"] ;
1 [label="assignmentsQty <= 86.55\nfriedman_mse = 0.0\nsamples = 105\nvalue = -0.0", fillcolor="#f1bd97"] ;
0 -> 1 [labeldistance=2.5, labelangle=45, headlabel="True"] ;
3 [label="privateFieldsQty <= 1.5\nfriedman_mse = 0.0\nsamples = 101\nvalue = 0.0", fillcolor="#f1bd97"] ;
1 -> 3 ;
5 [label="friedman_mse = 0.0\nsamples = 18\nvalue = -1.03", fillcolor="#fefaf6"] ;
3 -> 5 ;
6 [label="friedman_mse = 0.0\nsamples = 83\nvalue = 0.31", fillcolor="#eeab7a"] ;
3 -> 6 ;
4 [label="friedman_mse = 0.0\nsamples = 4\nvalue = -1.13", fillcolor="#ffffff"] ;
1 -> 4 ;
2 [label="comparisonsQty <= 11.9\nfriedman_mse = 0.0\nsamples = 19\nvalue = 0.01", fillcolor="#f1bc96"] ;
0 -> 2 [labeldistance=2.5, labelangle=-45, headlabel="False"] ;
7 [label="friedman_mse = 0.0\nsamples = 1\nvalue = -1.0", fillcolor="#fdf8f4"] ;
2 -> 7 ;
8 [label="dit <= 1.5\nfriedman_mse = 0.0\nsamples = 18\nvalue = 0.01", fillcolor="#f1bc96"] ;
2 -> 8 ;
9 [label="friedman_mse = 0.0\nsamples = 17\nvalue = 1.01", fillcolor="#e58139"] ;
8 -> 9 ;
10 [label="friedman_mse = 0.0\nsamples = 1\nvalue = -1.0", fillcolor="#fdf8f3"] ;
8 -> 10 ;
}