digraph Tree {
node [shape=box, style="filled, rounded", color="black", fontname="helvetica"] ;
edge [fontname="helvetica"] ;
0 [label="assignmentsQty <= 40.5\nfriedman_mse = 0.01\nsamples = 124\nvalue = -0.0", fillcolor="#eda774"] ;
1 [label="loc <= 129.5\nfriedman_mse = 0.0\nsamples = 84\nvalue = 0.02", fillcolor="#eda673"] ;
0 -> 1 [labeldistance=2.5, labelangle=45, headlabel="True"] ;
9 [label="privateFieldsQty <= 1.5\nfriedman_mse = 0.0\nsamples = 29\nvalue = -0.03", fillcolor="#eda876"] ;
1 -> 9 ;
13 [label="friedman_mse = 0.0\nsamples = 11\nvalue = -1.03", fillcolor="#f6d2b8"] ;
9 -> 13 ;
14 [label="friedman_mse = 0.0\nsamples = 18\nvalue = -1.03", fillcolor="#f6d2b9"] ;
9 -> 14 ;
10 [label="comparisonsQty <= 14.5\nfriedman_mse = 0.0\nsamples = 55\nvalue = 0.04", fillcolor="#eca572"] ;
1 -> 10 ;
11 [label="friedman_mse = 0.0\nsamples = 12\nvalue = -1.04", fillcolor="#f6d3b9"] ;
10 -> 11 ;
12 [label="friedman_mse = 0.0\nsamples = 43\nvalue = 0.81", fillcolor="#e6843e"] ;
10 -> 12 ;
2 [label="privateFieldsQty <= 3.74\nfriedman_mse = 0.03\nsamples = 40\nvalue = -0.03", fillcolor="#eda877"] ;
0 -> 2 [labeldistance=2.5, labelangle=-45, headlabel="False"] ;
3 [label="comparisonsQty <= 17.33\nfriedman_mse = 0.03\nsamples = 27\nvalue = 0.01", fillcolor="#eda774"] ;
2 -> 3 ;
5 [label="friedman_mse = 0.06\nsamples = 6\nvalue = -2.09", fillcolor="#ffffff"] ;
3 -> 5 ;
6 [label="friedman_mse = 0.0\nsamples = 21\nvalue = 0.89", fillcolor="#e58139"] ;
3 -> 6 ;
4 [label="comparisonsQty <= 20.5\nfriedman_mse = 0.04\nsamples = 13\nvalue = -0.11", fillcolor="#eeac7c"] ;
2 -> 4 ;
7 [label="friedman_mse = 0.01\nsamples = 9\nvalue = -0.41", fillcolor="#f0b890"] ;
4 -> 7 ;
8 [label="friedman_mse = 0.05\nsamples = 4\nvalue = -1.91", fillcolor="#fdf7f3"] ;
4 -> 8 ;
}