digraph Tree {
node [shape=box, style="filled, rounded", color="black", fontname="helvetica"] ;
edge [fontname="helvetica"] ;
0 [label="comparisonsQty <= 34.5\nfriedman_mse = 0.0\nsamples = 124\nvalue = -0.0", fillcolor="#e9965b"] ;
1 [label="privateFieldsQty <= 5.5\nfriedman_mse = 0.0\nsamples = 122\nvalue = 0.0", fillcolor="#e9965a"] ;
0 -> 1 [labeldistance=2.5, labelangle=45, headlabel="True"] ;
3 [label="loc <= 567.5\nfriedman_mse = 0.0\nsamples = 110\nvalue = 0.0", fillcolor="#e9965a"] ;
1 -> 3 ;
5 [label="friedman_mse = 0.0\nsamples = 107\nvalue = 0.23", fillcolor="#e58139"] ;
3 -> 5 ;
6 [label="friedman_mse = 0.01\nsamples = 3\nvalue = -0.62", fillcolor="#f5d0b6"] ;
3 -> 6 ;
4 [label="assignmentsQty <= 40.5\nfriedman_mse = 0.0\nsamples = 12\nvalue = -0.02", fillcolor="#ea985e"] ;
1 -> 4 ;
7 [label="friedman_mse = 0.0\nsamples = 7\nvalue = -1.03", fillcolor="#fdf7f2"] ;
4 -> 7 ;
8 [label="friedman_mse = 0.0\nsamples = 5\nvalue = -1.06", fillcolor="#fefaf6"] ;
4 -> 8 ;
2 [label="friedman_mse = 0.0\nsamples = 2\nvalue = -1.12", fillcolor="#ffffff"] ;
0 -> 2 [labeldistance=2.5, labelangle=-45, headlabel="False"] ;
}