digraph Tree {
node [shape=box, style="filled, rounded", color="black", fontname="helvetica"] ;
edge [fontname="helvetica"] ;
0 [label="comparisonsQty <= 34.5\nfriedman_mse = 0.0\nsamples = 124\nvalue = -0.0", fillcolor="#f2be99"] ;
1 [label="assignmentsQty <= 149.93\nfriedman_mse = 0.0\nsamples = 122\nvalue = 0.0", fillcolor="#f2be99"] ;
0 -> 1 [labeldistance=2.5, labelangle=45, headlabel="True"] ;
3 [label="assignmentsQty <= 86.55\nfriedman_mse = 0.0\nsamples = 113\nvalue = -0.0", fillcolor="#f2be99"] ;
1 -> 3 ;
5 [label="friedman_mse = 0.0\nsamples = 101\nvalue = 0.1", fillcolor="#f0b890"] ;
3 -> 5 ;
6 [label="friedman_mse = 0.0\nsamples = 12\nvalue = -0.73", fillcolor="#fbeade"] ;
3 -> 6 ;
4 [label="friedman_mse = 0.0\nsamples = 9\nvalue = 1.02", fillcolor="#e58139"] ;
1 -> 4 ;
2 [label="friedman_mse = 0.0\nsamples = 2\nvalue = -1.08", fillcolor="#ffffff"] ;
0 -> 2 [labeldistance=2.5, labelangle=-45, headlabel="False"] ;
}