digraph Tree {
node [shape=box, style="filled, rounded", color="black", fontname="helvetica"] ;
edge [fontname="helvetica"] ;
0 [label="comparisonsQty <= 34.5\nfriedman_mse = 0.01\nsamples = 124\nvalue = -0.0", fillcolor="#eeab7c"] ;
1 [label="assignmentsQty <= 124.0\nfriedman_mse = 0.01\nsamples = 122\nvalue = 0.0", fillcolor="#eeab7b"] ;
0 -> 1 [labeldistance=2.5, labelangle=45, headlabel="True"] ;
3 [label="loc <= 567.5\nfriedman_mse = 0.01\nsamples = 103\nvalue = -0.01", fillcolor="#eeac7c"] ;
1 -> 3 ;
5 [label="friedman_mse = 0.01\nsamples = 102\nvalue = -0.0", fillcolor="#eeac7c"] ;
3 -> 5 ;
6 [label="friedman_mse = 0.0\nsamples = 1\nvalue = -2.03", fillcolor="#ffffff"] ;
3 -> 6 ;
4 [label="comparisonsQty <= 11.9\nfriedman_mse = 0.0\nsamples = 19\nvalue = 0.04", fillcolor="#edaa79"] ;
1 -> 4 ;
7 [label="friedman_mse = 0.0\nsamples = 1\nvalue = -1.02", fillcolor="#f6d6be"] ;
4 -> 7 ;
8 [label="friedman_mse = 0.0\nsamples = 18\nvalue = 1.03", fillcolor="#e58139"] ;
4 -> 8 ;
2 [label="friedman_mse = 0.01\nsamples = 2\nvalue = -1.31", fillcolor="#f9e2d1"] ;
0 -> 2 [labeldistance=2.5, labelangle=-45, headlabel="False"] ;
}