digraph Tree {
node [shape=box, style="filled, rounded", color="black", fontname="helvetica"] ;
edge [fontname="helvetica"] ;
0 [label="assignmentsQty <= 40.5\nfriedman_mse = 0.0\nsamples = 124\nvalue = -0.0", fillcolor="#f0b58a"] ;
1 [label="comparisonsQty <= 14.5\nfriedman_mse = 0.0\nsamples = 84\nvalue = 0.0", fillcolor="#f0b58a"] ;
0 -> 1 [labeldistance=2.5, labelangle=45, headlabel="True"] ;
7 [label="comparisonsQty <= 0.5\nfriedman_mse = 0.0\nsamples = 41\nvalue = -0.0", fillcolor="#f0b58a"] ;
1 -> 7 ;
11 [label="friedman_mse = 0.0\nsamples = 5\nvalue = -1.01", fillcolor="#fefdfb"] ;
7 -> 11 ;
12 [label="friedman_mse = 0.0\nsamples = 36\nvalue = -1.0", fillcolor="#fefcfb"] ;
7 -> 12 ;
8 [label="loc <= 293.0\nfriedman_mse = 0.0\nsamples = 43\nvalue = 0.0", fillcolor="#f0b48a"] ;
1 -> 8 ;
9 [label="friedman_mse = 0.0\nsamples = 42\nvalue = 0.72", fillcolor="#e58139"] ;
8 -> 9 ;
10 [label="friedman_mse = -0.0\nsamples = 1\nvalue = -1.02", fillcolor="#fffdfc"] ;
8 -> 10 ;
2 [label="returnQty <= 1.0\nfriedman_mse = 0.0\nsamples = 40\nvalue = -0.0", fillcolor="#f0b58a"] ;
0 -> 2 [labeldistance=2.5, labelangle=-45, headlabel="False"] ;
3 [label="friedman_mse = 0.0\nsamples = 1\nvalue = -1.04", fillcolor="#ffffff"] ;
2 -> 3 ;
4 [label="privateFieldsQty <= 3.74\nfriedman_mse = 0.0\nsamples = 39\nvalue = -0.0", fillcolor="#f0b58a"] ;
2 -> 4 ;
5 [label="friedman_mse = 0.0\nsamples = 26\nvalue = 0.18", fillcolor="#eda876"] ;
4 -> 5 ;
6 [label="friedman_mse = 0.0\nsamples = 13\nvalue = -0.51", fillcolor="#f7d9c3"] ;
4 -> 6 ;
}