digraph Tree {
node [shape=box, style="filled, rounded", color="black", fontname="helvetica"] ;
edge [fontname="helvetica"] ;
0 [label="privateFieldsQty <= 7.5\nfriedman_mse = 0.0\nsamples = 124\nvalue = -0.0", fillcolor="#f2c09b"] ;
1 [label="assignmentsQty <= 146.97\nfriedman_mse = 0.0\nsamples = 120\nvalue = 0.0", fillcolor="#f2c09b"] ;
0 -> 1 [labeldistance=2.5, labelangle=45, headlabel="True"] ;
3 [label="assignmentsQty <= 86.55\nfriedman_mse = 0.0\nsamples = 110\nvalue = -0.0", fillcolor="#f2c09c"] ;
1 -> 3 ;
5 [label="friedman_mse = 0.0\nsamples = 97\nvalue = 0.2", fillcolor="#efb489"] ;
3 -> 5 ;
6 [label="friedman_mse = 0.01\nsamples = 13\nvalue = -0.94", fillcolor="#fdf7f3"] ;
3 -> 6 ;
4 [label="loc <= 532.9\nfriedman_mse = 0.0\nsamples = 10\nvalue = 0.03", fillcolor="#f2be98"] ;
1 -> 4 ;
7 [label="friedman_mse = 0.0\nsamples = 8\nvalue = 1.03", fillcolor="#e5823b"] ;
4 -> 7 ;
8 [label="friedman_mse = -0.0\nsamples = 2\nvalue = 1.05", fillcolor="#e58139"] ;
4 -> 8 ;
2 [label="friedman_mse = 0.0\nsamples = 4\nvalue = -1.07", fillcolor="#ffffff"] ;
0 -> 2 [labeldistance=2.5, labelangle=-45, headlabel="False"] ;
}