digraph Tree {
node [shape=box, style="filled, rounded", color="black", fontname="helvetica"] ;
edge [fontname="helvetica"] ;
0 [label="comparisonsQty <= 14.5\nfriedman_mse = 0.21\nsamples = 124\nvalue = -0.0", fillcolor="#f0b58a"] ;
1 [label="friedman_mse = 0.0\nsamples = 48\nvalue = -1.82", fillcolor="#fdf5ef"] ;
0 -> 1 [labeldistance=2.5, labelangle=45, headlabel="True"] ;
2 [label="dit <= 1.5\nfriedman_mse = 0.14\nsamples = 76\nvalue = 0.28", fillcolor="#eeab7b"] ;
0 -> 2 [labeldistance=2.5, labelangle=-45, headlabel="False"] ;
3 [label="comparisonsQty <= 34.5\nfriedman_mse = 0.1\nsamples = 71\nvalue = 0.34", fillcolor="#eda977"] ;
2 -> 3 ;
5 [label="friedman_mse = 0.08\nsamples = 69\nvalue = 1.47", fillcolor="#e58139"] ;
3 -> 5 ;
6 [label="friedman_mse = 0.0\nsamples = 2\nvalue = -1.82", fillcolor="#fdf5ef"] ;
3 -> 6 ;
4 [label="friedman_mse = 0.0\nsamples = 5\nvalue = -2.1", fillcolor="#ffffff"] ;
2 -> 4 ;
}