digraph Tree {
node [shape=box, style="filled, rounded", color="black", fontname="helvetica"] ;
edge [fontname="helvetica"] ;
0 [label="comparisonsQty <= 21.57\nfriedman_mse = 0.01\nsamples = 124\nvalue = -0.0", fillcolor="#f1ba92"] ;
1 [label="assignmentsQty <= 86.55\nfriedman_mse = 0.01\nsamples = 89\nvalue = -0.01", fillcolor="#f1ba93"] ;
0 -> 1 [labeldistance=2.5, labelangle=45, headlabel="True"] ;
3 [label="privateFieldsQty <= 5.5\nfriedman_mse = 0.01\nsamples = 80\nvalue = -0.0", fillcolor="#f1ba92"] ;
1 -> 3 ;
9 [label="friedman_mse = 0.0\nsamples = 69\nvalue = 0.16", fillcolor="#efb184"] ;
3 -> 9 ;
10 [label="friedman_mse = 0.0\nsamples = 11\nvalue = -1.12", fillcolor="#fdf5f0"] ;
3 -> 10 ;
4 [label="friedman_mse = 0.08\nsamples = 9\nvalue = -1.28", fillcolor="#fffefe"] ;
1 -> 4 ;
2 [label="dit <= 1.5\nfriedman_mse = 0.0\nsamples = 35\nvalue = 0.03", fillcolor="#f0b88f"] ;
0 -> 2 [labeldistance=2.5, labelangle=-45, headlabel="False"] ;
5 [label="comparisonsQty <= 34.5\nfriedman_mse = 0.0\nsamples = 33\nvalue = 0.04", fillcolor="#f0b78e"] ;
2 -> 5 ;
7 [label="friedman_mse = 0.0\nsamples = 31\nvalue = 1.06", fillcolor="#e58139"] ;
5 -> 7 ;
8 [label="friedman_mse = 0.01\nsamples = 2\nvalue = -1.3", fillcolor="#ffffff"] ;
5 -> 8 ;
6 [label="friedman_mse = 0.0\nsamples = 2\nvalue = -1.18", fillcolor="#fef8f5"] ;
2 -> 6 ;
}