digraph Tree {
node [shape=box, style="filled, rounded", color="black", fontname="helvetica"] ;
edge [fontname="helvetica"] ;
0 [label="uniqueWordsQty <= 87.0\ngini = 0.48\nsamples = 62\nvalue = [57, 37]\nclass = Branch", fillcolor="#f6d3ba"] ;
1 [label="numbersQty <= 8.5\ngini = 0.22\nsamples = 41\nvalue = [57, 8]\nclass = Branch", fillcolor="#e99355"] ;
0 -> 1 [labeldistance=2.5, labelangle=45, headlabel="True"] ;
2 [label="gini = 0.0\nsamples = 4\nvalue = [0, 5]\nclass = Branch + Output Diversity", fillcolor="#399de5"] ;
1 -> 2 ;
3 [label="lcom* <= 0.95\ngini = 0.09\nsamples = 37\nvalue = [57, 3]\nclass = Branch", fillcolor="#e68843"] ;
1 -> 3 ;
4 [label="gini = 0.13\nsamples = 29\nvalue = [41, 3]\nclass = Branch", fillcolor="#e78a47"] ;
3 -> 4 ;
5 [label="gini = 0.0\nsamples = 8\nvalue = [16, 0]\nclass = Branch", fillcolor="#e58139"] ;
3 -> 5 ;
6 [label="gini = 0.0\nsamples = 21\nvalue = [0, 29]\nclass = Branch + Output Diversity", fillcolor="#399de5"] ;
0 -> 6 [labeldistance=2.5, labelangle=-45, headlabel="False"] ;
}