digraph Tree {
node [shape=box, style="filled, rounded", color="black", fontname="helvetica"] ;
edge [fontname="helvetica"] ;
0 [label="uniqueWordsQty <= 87.0\ngini = 0.5\nsamples = 60\nvalue = [48, 46]\nclass = Branch", fillcolor="#fefaf7"] ;
1 [label="cbo <= 3.5\ngini = 0.27\nsamples = 38\nvalue = [48, 9]\nclass = Branch", fillcolor="#ea995e"] ;
0 -> 1 [labeldistance=2.5, labelangle=45, headlabel="True"] ;
2 [label="gini = 0.0\nsamples = 5\nvalue = [0, 6]\nclass = Branch + Output Diversity", fillcolor="#399de5"] ;
1 -> 2 ;
3 [label="cbo <= 9.0\ngini = 0.11\nsamples = 33\nvalue = [48, 3]\nclass = Branch", fillcolor="#e78945"] ;
1 -> 3 ;
4 [label="gini = 0.17\nsamples = 20\nvalue = [30, 3]\nclass = Branch", fillcolor="#e88e4d"] ;
3 -> 4 ;
5 [label="gini = 0.0\nsamples = 13\nvalue = [18, 0]\nclass = Branch", fillcolor="#e58139"] ;
3 -> 5 ;
6 [label="gini = 0.0\nsamples = 22\nvalue = [0, 37]\nclass = Branch + Output Diversity", fillcolor="#399de5"] ;
0 -> 6 [labeldistance=2.5, labelangle=-45, headlabel="False"] ;
}