digraph Tree {
node [shape=box, style="filled, rounded", color="black", fontname="helvetica"] ;
edge [fontname="helvetica"] ;
0 [label="visibleMethodsQty <= 78.0\nfriedman_mse = 0.01\nsamples = 80\nvalue = -0.0", fillcolor="#eca471"] ;
1 [label="numbersQty <= 7.0\nfriedman_mse = 0.01\nsamples = 70\nvalue = 0.01", fillcolor="#eca470"] ;
0 -> 1 [labeldistance=2.5, labelangle=45, headlabel="True"] ;
3 [label="friedman_mse = 0.0\nsamples = 23\nvalue = -0.58", fillcolor="#f7d6bf"] ;
1 -> 3 ;
4 [label="friedman_mse = 0.01\nsamples = 47\nvalue = 0.41", fillcolor="#e58139"] ;
1 -> 4 ;
2 [label="friedman_mse = 0.0\nsamples = 10\nvalue = -1.05", fillcolor="#ffffff"] ;
0 -> 2 [labeldistance=2.5, labelangle=-45, headlabel="False"] ;
}