digraph Tree {
node [shape=box, style="filled, rounded", color="black", fontname="helvetica"] ;
edge [fontname="helvetica"] ;
0 [label="staticFieldsQty <= 16.5\nfriedman_mse = 0.0\nsamples = 80\nvalue = -0.0", fillcolor="#f7d8c2"] ;
1 [label="staticFieldsQty <= 6.0\nfriedman_mse = 0.0\nsamples = 78\nvalue = -0.0", fillcolor="#f7d8c2"] ;
0 -> 1 [labeldistance=2.5, labelangle=45, headlabel="True"] ;
3 [label="friedman_mse = 0.0\nsamples = 55\nvalue = 0.3", fillcolor="#f2c09c"] ;
1 -> 3 ;
4 [label="friedman_mse = 0.0\nsamples = 23\nvalue = -0.48", fillcolor="#ffffff"] ;
1 -> 4 ;
2 [label="friedman_mse = 0.0\nsamples = 2\nvalue = 1.08", fillcolor="#e58139"] ;
0 -> 2 [labeldistance=2.5, labelangle=-45, headlabel="False"] ;
}