digraph Tree {
node [shape=box, style="filled, rounded", color="black", fontname="helvetica"] ;
edge [fontname="helvetica"] ;
0 [label="comparisonsQty <= 131.5\nfriedman_mse = 0.0\nsamples = 80\nvalue = -0.0", fillcolor="#f2be99"] ;
1 [label="loopQty <= 4.5\nfriedman_mse = 0.0\nsamples = 78\nvalue = 0.0", fillcolor="#f2be99"] ;
0 -> 1 [labeldistance=2.5, labelangle=45, headlabel="True"] ;
3 [label="friedman_mse = 0.0\nsamples = 55\nvalue = -0.18", fillcolor="#f4c9a9"] ;
1 -> 3 ;
4 [label="friedman_mse = 0.0\nsamples = 23\nvalue = 1.1", fillcolor="#e58139"] ;
1 -> 4 ;
2 [label="friedman_mse = 0.0\nsamples = 2\nvalue = -1.16", fillcolor="#ffffff"] ;
0 -> 2 [labeldistance=2.5, labelangle=-45, headlabel="False"] ;
}