digraph Tree {
node [shape=box, style="filled, rounded", color="black", fontname="helvetica"] ;
edge [fontname="helvetica"] ;
0 [label="comparisonsQty <= 1.5\nfriedman_mse = 0.01\nsamples = 80\nvalue = 0.0", fillcolor="#f3c4a2"] ;
1 [label="friedman_mse = 0.0\nsamples = 2\nvalue = 1.2", fillcolor="#e58139"] ;
0 -> 1 [labeldistance=2.5, labelangle=45, headlabel="True"] ;
2 [label="numbersQty <= 7.0\nfriedman_mse = 0.01\nsamples = 78\nvalue = -0.0", fillcolor="#f3c4a2"] ;
0 -> 2 [labeldistance=2.5, labelangle=-45, headlabel="False"] ;
3 [label="friedman_mse = 0.0\nsamples = 21\nvalue = -1.06", fillcolor="#ffffff"] ;
2 -> 3 ;
4 [label="friedman_mse = 0.01\nsamples = 57\nvalue = 0.22", fillcolor="#f0b78f"] ;
2 -> 4 ;
}