digraph Tree {
node [shape=box, style="filled, rounded", color="black", fontname="helvetica"] ;
edge [fontname="helvetica"] ;
0 [label="numbersQty <= 7.0\nfriedman_mse = 0.01\nsamples = 80\nvalue = -0.0", fillcolor="#f6d2b9"] ;
1 [label="friedman_mse = 0.0\nsamples = 23\nvalue = -0.62", fillcolor="#ffffff"] ;
0 -> 1 [labeldistance=2.5, labelangle=45, headlabel="True"] ;
2 [label="numbersQty <= 18.5\nfriedman_mse = 0.01\nsamples = 57\nvalue = 0.01", fillcolor="#f6d1b7"] ;
0 -> 2 [labeldistance=2.5, labelangle=-45, headlabel="False"] ;
3 [label="friedman_mse = 0.0\nsamples = 10\nvalue = 1.14", fillcolor="#e58139"] ;
2 -> 3 ;
4 [label="friedman_mse = 0.01\nsamples = 47\nvalue = -0.05", fillcolor="#f7d6bf"] ;
2 -> 4 ;
}