digraph Tree {
node [shape=box, style="filled, rounded", color="black", fontname="helvetica"] ;
edge [fontname="helvetica"] ;
0 [label="numbersQty <= 7.0\nfriedman_mse = 0.0\nsamples = 80\nvalue = -0.0", fillcolor="#f4c8a9"] ;
1 [label="friedman_mse = 0.0\nsamples = 23\nvalue = -0.62", fillcolor="#ffffff"] ;
0 -> 1 [labeldistance=2.5, labelangle=45, headlabel="True"] ;
2 [label="loopQty <= 1.5\nfriedman_mse = 0.0\nsamples = 57\nvalue = 0.01", fillcolor="#f4c8a8"] ;
0 -> 2 [labeldistance=2.5, labelangle=-45, headlabel="False"] ;
3 [label="friedman_mse = 0.0\nsamples = 21\nvalue = -0.41", fillcolor="#fbede2"] ;
2 -> 3 ;
4 [label="friedman_mse = 0.0\nsamples = 36\nvalue = 0.81", fillcolor="#e58139"] ;
2 -> 4 ;
}