digraph Tree {
node [shape=box, style="filled, rounded", color="black", fontname="helvetica"] ;
edge [fontname="helvetica"] ;
0 [label="numbersQty <= 132.5\nfriedman_mse = 0.02\nsamples = 80\nvalue = -0.0", fillcolor="#f8ddca"] ;
1 [label="staticFieldsQty <= 2.5\nfriedman_mse = 0.02\nsamples = 77\nvalue = -0.01", fillcolor="#f8deca"] ;
0 -> 1 [labeldistance=2.5, labelangle=45, headlabel="True"] ;
3 [label="friedman_mse = 0.01\nsamples = 42\nvalue = 0.47", fillcolor="#f1bc95"] ;
1 -> 3 ;
4 [label="friedman_mse = 0.02\nsamples = 35\nvalue = -0.48", fillcolor="#ffffff"] ;
1 -> 4 ;
2 [label="friedman_mse = 0.01\nsamples = 3\nvalue = 1.29", fillcolor="#e58139"] ;
0 -> 2 [labeldistance=2.5, labelangle=-45, headlabel="False"] ;
}