digraph Tree {
node [shape=box, style="filled, rounded", color="black", fontname="helvetica"] ;
edge [fontname="helvetica"] ;
0 [label="staticFieldsQty <= 6.0\nfriedman_mse = 0.0\nsamples = 80\nvalue = -0.0", fillcolor="#f6d4bb"] ;
1 [label="numbersQty <= 7.0\nfriedman_mse = 0.0\nsamples = 55\nvalue = 0.01", fillcolor="#f6d3b9"] ;
0 -> 1 [labeldistance=2.5, labelangle=45, headlabel="True"] ;
3 [label="friedman_mse = 0.0\nsamples = 23\nvalue = -0.57", fillcolor="#ffffff"] ;
1 -> 3 ;
4 [label="friedman_mse = 0.0\nsamples = 32\nvalue = 1.08", fillcolor="#e58139"] ;
1 -> 4 ;
2 [label="friedman_mse = 0.01\nsamples = 25\nvalue = -0.38", fillcolor="#fcf1e9"] ;
0 -> 2 [labeldistance=2.5, labelangle=-45, headlabel="False"] ;
}