digraph Tree {
node [shape=box, style="filled, rounded", color="black", fontname="helvetica"] ;
edge [fontname="helvetica"] ;
0 [label="comparisonsQty <= 1.5\nfriedman_mse = 0.01\nsamples = 80\nvalue = -0.0", fillcolor="#f7d8c2"] ;
1 [label="friedman_mse = 0.0\nsamples = 2\nvalue = 1.34", fillcolor="#e58139"] ;
0 -> 1 [labeldistance=2.5, labelangle=45, headlabel="True"] ;
2 [label="loopQty <= 1.5\nfriedman_mse = 0.01\nsamples = 78\nvalue = -0.01", fillcolor="#f7d8c2"] ;
0 -> 2 [labeldistance=2.5, labelangle=-45, headlabel="False"] ;
3 [label="friedman_mse = 0.01\nsamples = 29\nvalue = -0.6", fillcolor="#ffffff"] ;
2 -> 3 ;
4 [label="friedman_mse = 0.01\nsamples = 49\nvalue = 0.31", fillcolor="#f3c4a2"] ;
2 -> 4 ;
}