digraph Tree {
node [shape=box, style="filled, rounded", color="black", fontname="helvetica"] ;
edge [fontname="helvetica"] ;
0 [label="staticFieldsQty <= 6.0\nfriedman_mse = 0.04\nsamples = 80\nvalue = -0.0", fillcolor="#f5d0b5"] ;
1 [label="numbersQty <= 7.0\nfriedman_mse = 0.03\nsamples = 55\nvalue = 0.04", fillcolor="#f5cdb1"] ;
0 -> 1 [labeldistance=2.5, labelangle=45, headlabel="True"] ;
3 [label="friedman_mse = 0.03\nsamples = 23\nvalue = -0.72", fillcolor="#ffffff"] ;
1 -> 3 ;
4 [label="friedman_mse = 0.0\nsamples = 32\nvalue = 1.2", fillcolor="#e58139"] ;
1 -> 4 ;
2 [label="friedman_mse = 0.06\nsamples = 25\nvalue = -0.5", fillcolor="#fcf0e8"] ;
0 -> 2 [labeldistance=2.5, labelangle=-45, headlabel="False"] ;
}