digraph Tree {
node [shape=box, style="filled, rounded", color="black", fontname="helvetica"] ;
edge [fontname="helvetica"] ;
0 [label="loopQty <= 1.5\nfriedman_mse = 0.05\nsamples = 80\nvalue = -0.0", fillcolor="#f1ba92"] ;
1 [label="friedman_mse = 0.05\nsamples = 31\nvalue = -0.56", fillcolor="#f7d9c3"] ;
0 -> 1 [labeldistance=2.5, labelangle=45, headlabel="True"] ;
2 [label="numbersQty <= 7.5\nfriedman_mse = 0.04\nsamples = 49\nvalue = 0.06", fillcolor="#f0b78d"] ;
0 -> 2 [labeldistance=2.5, labelangle=-45, headlabel="False"] ;
3 [label="friedman_mse = 0.0\nsamples = 13\nvalue = -1.24", fillcolor="#ffffff"] ;
2 -> 3 ;
4 [label="friedman_mse = 0.03\nsamples = 36\nvalue = 1.02", fillcolor="#e58139"] ;
2 -> 4 ;
}